<?xml version="1.0"?>
<opencv_storage>
<stage2>
  <maxWeakCount>27</maxWeakCount>
  <stageThreshold>-3.2058620452880859e-01</stageThreshold>
  <weakClassifiers>
    <_>
      <internalNodes>
        0 -1 1824 -5.5485796928405762e-01</internalNodes>
      <leafValues>
        -6.1111110448837280e-01 8.4622508287429810e-01</leafValues></_>
    <_>
      <internalNodes>
        0 -1 26275 -3.4253937192261219e-03</internalNodes>
      <leafValues>
        6.1211097240447998e-01 -3.5259667783975601e-02</leafValues></_>
    <_>
      <internalNodes>
        0 -1 360596 -6.0174673795700073e-02</internalNodes>
      <leafValues>
        4.9162852764129639e-01 -1.9602119922637939e-01</leafValues></_>
    <_>
      <internalNodes>
        0 -1 688963 7.7295769006013870e-03</internalNodes>
      <leafValues>
        -2.1263897418975830e-01 3.9198631048202515e-01</leafValues></_>
    <_>
      <internalNodes>
        0 -1 419338 6.1299987137317657e-03</internalNodes>
      <leafValues>
        -1.2609864771366119e-01 6.5890032052993774e-01</leafValues></_>
    <_>
      <internalNodes>
        0 -1 458588 -3.4219031222164631e-03</internalNodes>
      <leafValues>
        5.6602454185485840e-01 -2.0257073640823364e-01</leafValues></_>
    <_>
      <internalNodes>
        0 -1 364918 1.5187595272436738e-03</internalNodes>
      <leafValues>
        1.5521915256977081e-01 -5.2040284872055054e-01</leafValues></_>
    <_>
      <internalNodes>
        0 -1 271794 -2.2699380293488503e-02</internalNodes>
      <leafValues>
        4.9191710352897644e-01 -1.7164954543113708e-01</leafValues></_>
    <_>
      <internalNodes>
        0 -1 136411 -6.4140921458601952e-03</internalNodes>
      <leafValues>
        4.2737370729446411e-01 -1.5857984125614166e-01</leafValues></_>
    <_>
      <internalNodes>
        0 -1 645291 2.5573909282684326e-02</internalNodes>
      <leafValues>
        -1.8071995675563812e-01 3.9579415321350098e-01</leafValues></_>
    <_>
      <internalNodes>
        0 -1 739765 5.4476305376738310e-04</internalNodes>
      <leafValues>
        1.4913655817508698e-01 -5.2556234598159790e-01</leafValues></_>
    <_>
      <internalNodes>
        0 -1 739765 -5.7186000049114227e-04</internalNodes>
      <leafValues>
        -5.5651533603668213e-01 1.1372549086809158e-01</leafValues></_>
    <_>
      <internalNodes>
        0 -1 375158 -7.1833604015409946e-03</internalNodes>
      <leafValues>
        5.8942675590515137e-01 -1.1691559106111526e-01</leafValues></_>
    <_>
      <internalNodes>
        0 -1 19346 -5.7714106515049934e-03</internalNodes>
      <leafValues>
        3.6325171589851379e-01 -1.6432611644268036e-01</leafValues></_>
    <_>
      <internalNodes>
        0 -1 241443 6.7577045410871506e-03</internalNodes>
      <leafValues>
        -1.3320378959178925e-01 4.6655055880546570e-01</leafValues></_>
    <_>
      <internalNodes>
        0 -1 197233 -3.0535258702002466e-04</internalNodes>
      <leafValues>
        -5.8851689100265503e-01 1.0727919638156891e-01</leafValues></_>
    <_>
      <internalNodes>
        0 -1 373910 -3.5549513995647430e-03</internalNodes>
      <leafValues>
        4.1868364810943604e-01 -1.5227517485618591e-01</leafValues></_>
    <_>
      <internalNodes>
        0 -1 241043 -2.3136944510042667e-03</internalNodes>
      <leafValues>
        4.4124668836593628e-01 -1.3880538940429688e-01</leafValues></_>
    <_>
      <internalNodes>
        0 -1 494532 -2.5392621755599976e-03</internalNodes>
      <leafValues>
        4.1537547111511230e-01 -1.2449382990598679e-01</leafValues></_>
    <_>
      <internalNodes>
        0 -1 186407 -1.4692068099975586e-02</internalNodes>
      <leafValues>
        3.7956529855728149e-01 -1.6212742030620575e-01</leafValues></_>
    <_>
      <internalNodes>
        0 -1 590700 1.7673974856734276e-02</internalNodes>
      <leafValues>
        -7.2021074593067169e-02 7.1105641126632690e-01</leafValues></_>
    <_>
      <internalNodes>
        0 -1 385227 1.2853776570409536e-03</internalNodes>
      <leafValues>
        -1.2060712277889252e-01 4.0588480234146118e-01</leafValues></_>
    <_>
      <internalNodes>
        0 -1 406026 -5.4826831910759211e-04</internalNodes>
      <leafValues>
        3.0771076679229736e-01 -1.7812366783618927e-01</leafValues></_>
    <_>
      <internalNodes>
        0 -1 611617 -3.6651536356657743e-04</internalNodes>
      <leafValues>
        -4.5154291391372681e-01 1.3894523680210114e-01</leafValues></_>
    <_>
      <internalNodes>
        0 -1 611618 4.8239919124171138e-04</internalNodes>
      <leafValues>
        1.1505965888500214e-01 -4.2886155843734741e-01</leafValues></_>
    <_>
      <internalNodes>
        0 -1 729435 1.0401219129562378e-02</internalNodes>
      <leafValues>
        -1.6684532165527344e-01 3.2648098468780518e-01</leafValues></_>
    <_>
      <internalNodes>
        0 -1 292265 -1.3034214498475194e-03</internalNodes>
      <leafValues>
        4.9532133340835571e-01 -1.0431911051273346e-01</leafValues></_></weakClassifiers></stage2>
</opencv_storage>
